tree
version=v3
num_class=1
num_tree_per_iteration=1
label_index=0
max_feature_idx=456
objective=regression
feature_names=spice honey butter oil salt egg milk pepper cheese beef onions tomato paste tomatosoup bean water chilipowder cumin lettuce herbs potatoes shallot parsley tarragon vinegar tomatojuice sugar mustard vanillaicecream concentrate apple seed olive garlic peppercorn orangerind orangejuice chile soysauce ginger leaf tomatosauce onion liquidsmoke stick orange juiceof mirin cookies syrup banana whippedcream freshlemonjuice flour soda sourcream horseradish wafers whippingcream strawberry walnuts chickenbouilloncube molasses cornstarch garlicpowder mustardpowder bacon greens hotsauce whiskey chops chili chips noodles peanuts celery pork broth buns cauliflower coriander floret peas nutmeg scallion applejuice spinach oats thyme halves condensedcreamofchickensoup paprika bakingpowder vanillaextract bread cinnamon lemon yolk turmeric jalapeno redpepperflakes meat beefbouilloncube zucchini cabbage macaroni margarine rosemary carrot oregano wine chickenstock worcestershiresauce tabascosauce chicken heavycream vanilla cocoa cornmeal corn eggsubstitute breadcrumb yogurt condensedcreamofmushroomsoup mayonnaise lowfatsourcream sage vegetables creamofmushroomsoup pasta clove buttermilk pecans raisin beer cayenne pickles chives ham onionpowder italianseasoning basil turkey pepperoni shortening yellowcakemix vanillainstantpuddingmix pineapple coconut yeast nuts sausage parsleyflakes spices pudding steak ketchup weed mushrooms salsa chickenbreast cream fat avocado cilantro lemonjuice gelatin pear sprigs cracker salami capers vegetableshortening halfandhalf rindof reducedsodiumsoysauce broccoli bonelesschickenbreast potato puree candies cucumber filling almonds thighs poultryseasoning salmon vegetablestock sprouts tofu limejuice bonelessskinlesschickenbreast rib eggwhite tacoseasoning sirloin masala bran tequila sec wedge marnier spaghetti applesauce dough dill lightsoysauce chocolate unsweetenedcocoapowder espresso marmalade gingerroot lowsodiumsoysauce creamofchickensoup purevanillaextract almondextract artichokehearts barbecuesauce dryonionsoupmix chestnuts cocoapowder whip chuck bouillon browns piecrust oatmeal shell dates liqueur zest creamofcelerysoup driedonionflakes frozenwhippedtopping sherry teriyakisauce hotpeppersauce nonfatdrymilkpowder splendasugarsubstitute biscuits berries blueberries asparagus mushroom spaghettisauce grahamcrackercrumbs creoleseasoning shrimp pickle heavywhippingcream linguine feta rice crabmeat fruit cherry tuna cajunseasoning pestosauce cashews mangoes icecube leek pods peppercorns beets yoghurt lemongrass cornflakes florets sprig relish seasonedbreadcrumbs vanillaessence pumpkin adobo freshlimejuice bisquick allspice rum mango ice hoisinsauce fishsauce cookedchickenbreast grapes chickenpieces beefstock driedparsleyflakes oldbayseasoning okra marshmallows krispies chickpeas tahini eggplant cereal gravy tacoseasoningmix clams pizzasauce cardamom lemonpeel chilisauce grenadine pineapplejuice marjoram cookingspray italiansaladdressing granules ghee currypowder zestof tortellini granular mix kahlua vodka schnapps lime chunks wings vermouth creamer coffee starch tortillas jam cranberries juiceandzestof raspberries fillet yellowsquash frosting greenfoodcoloring redfoodcoloring hamburger lemonrind oystersauce soymilk lightcream barley sweetener nonstickcookingspray tartar crushedredpepperflakes brisket cacao peaches seasoning halfandhalfcream fatfreesourcream catsup chip butternutsquash sprinkles prawns baguette lemonextract round hazelnuts corianderpowder apricot freshorangejuice wheatgerm italiandressing ranchdressing tenderloin gum shoulder parsnips spread bourbon skewers nonfatsourcream wedges amaretto freshlemonrind ale dogs onionsoupmix saffron lamb mint fettuccine mace rhubarb kielbasa bags pastry marinarasauce pastasauce tortilla alfredosauce watermelon nectar lentils currants pea baconbits drieditalianseasoning prosciutto tenders cornflour brandy cake cider pancetta arugula crisco sauerkraut pears jelly scallops whippedtopping crumb fraiche couscous almond enchiladasauce whitecakemix lightsourcream bisquickbakingmix quinoa refrigeratedcrescentdinnerrolls redchilipowder turmericpowder orangepeel marinatedartichokehearts guacamole apricots gorgonzola preserves cuminpowder cranberryjuice leave blackberries pimiento sprout pectin loin capsicum spears radishes chutney lard popcorn wrappers pistachios tea skinlesschickenbreast kale penne vegetableoilcookingspray lemonslice radish choy
feature_infos=[0:1] [0:1] [0:1] [0:1] [0:1] [0:1] [0:1] [0:1] [0:1] [0:1] [0:1] [0:1] [0:1] none [0:1] [0:1] [0:1] [0:1] [0:1] [0:1] [0:1] [0:1] [0:1] [0:1] [0:1] [0:1] [0:1] [0:1] none none [0:1] [0:1] [0:1] [0:1] [0:1] [0:1] [0:1] [0:1] [0:1] [0:1] [0:1] [0:1] [0:1] none [0:1] [0:1] [0:1] [0:1] none [0:1] [0:1] none [0:1] [0:1] [0:1] [0:1] [0:1] none [0:1] [0:1] [0:1] [0:1] [0:1] [0:1] [0:1] none [0:1] [0:1] [0:1] none [0:1] [0:1] [0:1] [0:1] [0:1] [0:1] [0:1] [0:1] none [0:1] [0:1] [0:1] [0:1] [0:1] [0:1] [0:1] [0:1] [0:1] [0:1] [0:1] none [0:1] [0:1] [0:1] [0:1] [0:1] [0:1] [0:1] [0:1] [0:1] [0:1] [0:1] [0:1] [0:1] [0:1] [0:1] [0:1] [0:1] [0:1] [0:1] [0:1] [0:1] [0:1] [0:1] [0:1] [0:1] [0:1] none [0:1] [0:1] none [0:1] [0:1] none [0:1] none [0:1] [0:1] [0:1] [0:1] [0:1] [0:1] [0:1] [0:1] [0:1] [0:1] none [0:1] [0:1] [0:1] [0:1] [0:1] [0:1] [0:1] none none none [0:1] [0:1] [0:1] [0:1] [0:1] [0:1] [0:1] none [0:1] [0:1] [0:1] [0:1] none [0:1] [0:1] none [0:1] [0:1] [0:1] [0:1] none [0:1] [0:1] none [0:1] none [0:1] none [0:1] [0:1] [0:1] [0:1] [0:1] none [0:1] none [0:1] [0:1] none [0:1] [0:1] [0:1] [0:1] [0:1] [0:1] [0:1] [0:1] none [0:1] [0:1] none none none [0:1] none [0:1] [0:1] [0:1] [0:1] [0:1] [0:1] none none [0:1] [0:1] [0:1] none none [0:1] [0:1] none none [0:1] none none [0:1] [0:1] none none none [0:1] [0:1] none [0:1] none none none [0:1] [0:1] [0:1] none none none [0:1] [0:1] [0:1] [0:1] [0:1] none none [0:1] none [0:1] [0:1] [0:1] [0:1] none [0:1] [0:1] [0:1] none [0:1] [0:1] none none [0:1] [0:1] [0:1] [0:1] [0:1] [0:1] none [0:1] [0:1] none none [0:1] [0:1] none [0:1] none [0:1] [0:1] [0:1] none [0:1] [0:1] none none [0:1] [0:1] none none [0:1] none none [0:1] [0:1] [0:1] none none none none none [0:1] [0:1] [0:1] none none [0:1] [0:1] none [0:1] [0:1] [0:1] [0:1] none none none none none none [0:1] [0:1] [0:1] none none none none none [0:1] [0:1] [0:1] [0:1] [0:1] [0:1] none none none none [0:1] [0:1] none [0:1] [0:1] none none none [0:1] none none [0:1] none none none none none [0:1] none none [0:1] none none [0:1] [0:1] [0:1] [0:1] none none none [0:1] none [0:1] none none none [0:1] none none none [0:1] none none none [0:1] [0:1] [0:1] [0:1] none none [0:1] none [0:1] [0:1] [0:1] none none none none [0:1] [0:1] [0:1] none none [0:1] none [0:1] [0:1] none [0:1] [0:1] [0:1] none [0:1] [0:1] [0:1] none none none [0:1] [0:1] [0:1] none none none none none none [0:1] [0:1] none none none [0:1] [0:1] [0:1] [0:1] none none none none none none [0:1] [0:1] none none [0:1] [0:1] none [0:1] [0:1] none [0:1] [0:1] [0:1] none none none [0:1]
tree_sizes=2759 2963 2964 2973 2976 3013 2974 2991 2980 2987 2994 3006 2973 2974 2973 2978 2986 3004 2974 2996

Tree=0
num_leaves=31
num_cat=0
split_feature=6 252 3 311 92 7 121 418 456 441 32 3 42 40 2 63 4 71 42 3 3 101 4 16 9 7 95 134 81 63
split_gain=19.787 17.4309 14.2828 9.00434 8.43529 7.89836 7.21269 6.60923 6.45718 5.97355 6.10742 5.88144 5.59338 5.28221 5.22465 5.20855 5.06041 4.86616 4.85659 5.05371 4.76453 4.75314 4.81056 4.73616 4.56961 4.99716 5.54064 4.51043 4.30113 4.20398
threshold=1.0000000180025095e-35 1.0000000180025095e-35 1.0000000180025095e-35 1.0000000180025095e-35 1.0000000180025095e-35 1.0000000180025095e-35 1.0000000180025095e-35 1.0000000180025095e-35 1.0000000180025095e-35 1.0000000180025095e-35 1.0000000180025095e-35 1.0000000180025095e-35 1.0000000180025095e-35 1.0000000180025095e-35 1.0000000180025095e-35 1.0000000180025095e-35 1.0000000180025095e-35 1.0000000180025095e-35 1.0000000180025095e-35 1.0000000180025095e-35 1.0000000180025095e-35 1.0000000180025095e-35 1.0000000180025095e-35 1.0000000180025095e-35 1.0000000180025095e-35 1.0000000180025095e-35 1.0000000180025095e-35 1.0000000180025095e-35 1.0000000180025095e-35 1.0000000180025095e-35
decision_type=2 2 2 2 2 2 2 2 2 2 2 2 2 2 2 2 2 2 2 2 2 2 2 2 2 2 2 2 2 2
left_child=1 3 5 7 6 12 20 8 9 10 17 -5 -3 15 -6 -4 -7 21 19 -19 24 23 -23 27 25 26 -2 28 29 -1
right_child=4 2 13 11 14 16 -8 -9 -10 -11 -12 -13 -14 -15 -16 -17 -18 18 -20 -21 -22 22 -24 -25 -26 -27 -28 -29 -30 -31
leaf_value=4.375727413633042 4.3549647147486743 4.3497396410153533 4.3768413330825933 4.345424523092027 4.3319615117931658 4.3743164566382067 4.3793441811568696 4.3458599523074586 4.3563932346177143 4.3488079107443376 4.382365500003667 4.3682445289874607 4.3196092478302273 4.35244535671203 4.3598447908329128 4.3592211930846627 4.3508798623449758 4.3410555847188323 4.3780414011084554 4.3661127904610861 4.3697122530697721 4.3769119334608906 4.3440124563343483 4.3645475708410428 4.3431101992718535 4.3704737137272129 4.380076308763738 4.3558501186338221 4.3532370237964457 4.369009054680526
leaf_weight=4695 181 43 201 40 28 42 100 20 48 22 262 96 24 35 42 53 51 27 55 79 292 20 25 107 32 132 25 30 22 245
leaf_count=4695 181 43 201 40 28 42 100 20 48 22 262 96 24 35 42 53 51 27 55 79 292 20 25 107 32 132 25 30 22 245
internal_value=4.37255 4.37351 4.36402 4.37425 4.3653 4.35203 4.36683 4.37455 4.37465 4.37481 4.37491 4.36153 4.33895 4.37066 4.34869 4.37316 4.36146 4.37455 4.36599 4.35973 4.36494 4.37481 4.35863 4.37496 4.36117 4.36288 4.35801 4.37518 4.3753 4.37539
internal_weight=0 6242 449 5793 832 160 762 5657 5637 5589 5567 136 67 289 70 254 93 5305 161 106 662 5144 45 5099 370 338 206 4992 4962 4940
internal_count=7074 6242 449 5793 832 160 762 5657 5637 5589 5567 136 67 289 70 254 93 5305 161 106 662 5144 45 5099 370 338 206 4992 4962 4940
is_linear=0
shrinkage=1


Tree=1
num_leaves=31
num_cat=0
split_feature=252 6 327 92 40 130 311 24 42 33 456 40 95 130 202 278 71 80 40 58 66 2 17 4 83 204 26 7 2 130
split_gain=17.9497 16.5343 8.50273 8.39089 6.88274 9.07193 6.6321 6.29576 6.19997 5.96908 5.84098 5.18179 5.38316 5.1705 6.58955 5.5258 5.11979 6.57281 7.04911 4.81147 4.8362 4.71524 4.16728 4.812 3.91284 3.98404 3.90539 4.3385 4.28388 3.87327
threshold=1.0000000180025095e-35 1.0000000180025095e-35 1.0000000180025095e-35 1.0000000180025095e-35 1.0000000180025095e-35 1.0000000180025095e-35 1.0000000180025095e-35 1.0000000180025095e-35 1.0000000180025095e-35 1.0000000180025095e-35 1.0000000180025095e-35 1.0000000180025095e-35 1.0000000180025095e-35 1.0000000180025095e-35 1.0000000180025095e-35 1.0000000180025095e-35 1.0000000180025095e-35 1.0000000180025095e-35 1.0000000180025095e-35 1.0000000180025095e-35 1.0000000180025095e-35 1.0000000180025095e-35 1.0000000180025095e-35 1.0000000180025095e-35 1.0000000180025095e-35 1.0000000180025095e-35 1.0000000180025095e-35 1.0000000180025095e-35 1.0000000180025095e-35 1.0000000180025095e-35
decision_type=2 2 2 2 2 2 2 2 2 2 2 2 2 2 2 2 2 2 2 2 2 2 2 2 2 2 2 2 2 2
left_child=1 2 6 8 5 7 10 -2 11 -8 13 12 26 15 22 16 19 18 -18 20 24 -5 -15 -24 25 -1 -3 28 -28 -6
right_child=4 3 -4 21 29 -7 9 -9 -10 -11 -12 -13 -14 14 -16 -17 17 -19 -20 -21 -22 -23 23 -25 -26 -27 27 -29 -30 -31
leaf_value=0.0010614757817606006 -0.0095193984891838307 -0.0079783099806754534 -0.023695170393947401 -0.038558111231915458 -0.013099529159565769 0.0033893822297325427 -0.0048158062654629092 -0.034454126449834026 0.0016993185769024423 -0.034430607222566322 -0.015347974283698327 0.0073138824787599092 0.0082691246945713025 0.0055941729030237501 -0.017187567691185648 -0.016529605518603187 -0.0065940428282255719 0.0087984696651498481 -0.039579114302992824 0.016156036222154009 0.010016981581143374 -0.012068996301275635 -0.011144097299048944 0.0040137732870501588 -0.0098048400576794294 0.017138824936671137 -0.033505945850396533 0.0025468250643461941 -0.013453917499435575 -0.037425445158345005
leaf_weight=3219 264 239 33 28 36 145 114 28 256 20 48 49 37 1621 35 44 46 33 25 56 155 42 84 139 82 39 50 20 57 30
leaf_count=3219 264 239 33 28 36 145 114 28 256 20 48 49 37 1621 35 44 46 33 25 56 155 42 84 139 82 39 50 20 57 30
internal_value=0 0.000693327 0.00161247 -0.00615066 -0.0091068 -0.00683381 0.00175747 -0.0119104 -0.00451792 -0.00923593 0.00201931 -0.00803919 -0.00990594 0.00216876 0.00430463 0.00108379 0.00129582 -0.00963898 -0.0182085 0.00161607 0.0013831 -0.0226646 0.00471256 -0.00169592 0.000982427 0.00125393 -0.0117433 -0.0188286 -0.022824 -0.0241568
internal_weight=0 6571 5793 778 503 437 5760 292 708 134 5626 452 403 5578 1879 3699 3655 104 71 3551 3495 70 1844 223 3340 3258 366 127 107 66
internal_count=7074 6571 5793 778 503 437 5760 292 708 134 5626 452 403 5578 1879 3699 3655 104 71 3551 3495 70 1844 223 3340 3258 366 127 107 66
is_linear=0
shrinkage=0.05


Tree=2
num_leaves=31
num_cat=0
split_feature=6 252 3 327 121 7 3 441 32 5 127 42 4 40 63 2 8 23 20 15 430 101 130 82 202 155 38 58 228 74
split_gain=16.219 14.0797 12.8365 7.67371 7.07138 7.0051 6.67001 6.25379 5.78039 5.27335 5.09295 5.04896 4.52424 4.3284 4.59512 4.27016 7.72736 4.17746 4.05913 3.89602 3.84373 3.89701 4.31575 7.36254 7.49247 4.96688 7.43939 4.80995 4.80421 4.57048
threshold=1.0000000180025095e-35 1.0000000180025095e-35 1.0000000180025095e-35 1.0000000180025095e-35 1.0000000180025095e-35 1.0000000180025095e-35 1.0000000180025095e-35 1.0000000180025095e-35 1.0000000180025095e-35 1.0000000180025095e-35 1.0000000180025095e-35 1.0000000180025095e-35 1.0000000180025095e-35 1.0000000180025095e-35 1.0000000180025095e-35 1.0000000180025095e-35 1.0000000180025095e-35 1.0000000180025095e-35 1.0000000180025095e-35 1.0000000180025095e-35 1.0000000180025095e-35 1.0000000180025095e-35 1.0000000180025095e-35 1.0000000180025095e-35 1.0000000180025095e-35 1.0000000180025095e-35 1.0000000180025095e-35 1.0000000180025095e-35 1.0000000180025095e-35 1.0000000180025095e-35
decision_type=2 2 2 2 2 2 2 2 2 2 2 2 2 2 2 2 2 2 2 2 2 2 2 2 2 2 2 2 2 2
left_child=1 3 5 7 6 11 9 8 10 -2 17 -3 -7 14 -4 16 -11 20 -8 -14 21 22 25 24 -24 27 -27 28 29 -1
right_child=4 2 13 -5 -6 12 18 -9 -10 15 -12 -13 19 -15 -16 -17 -18 -19 -20 -21 -22 -23 23 -25 -26 26 -28 -29 -30 -31
leaf_value=0.00095535947068226673 -0.0072977459344416217 -0.021092753649451013 0.0043562725200248301 -0.022510411579048997 0.0058400336772867359 0.0020113405150671798 -0.0053067681414042589 -0.023800436473296337 0.0089881399698239182 -0.041946301877316905 -0.017317489457006254 -0.04971927965913589 -0.034806804545223717 -0.017852709386497738 -0.012193772601807174 -0.013326239909656579 -0.0046487899219972038 0.015793744233829499 0.009890413384462865 -0.0071196505989603422 0.020975948184728622 -0.013845764945394226 0.0044941927215335934 -0.01362594353859542 -0.020310564381220648 -0.0013135957745835187 -0.026389599937413424 0.016053930755850734 -0.02219089513680007 -0.01526751784245293
leaf_weight=3269 231 43 201 33 101 42 257 24 265 41 36 24 24 35 53 128 21 51 53 27 25 42 1696 61 31 100 42 51 23 44
leaf_count=3269 231 43 201 33 101 42 257 24 265 41 36 24 24 35 53 128 21 51 53 27 25 42 1696 61 31 100 42 51 23 44
internal_value=0 0.000870736 -0.00765896 0.00153185 -0.00656102 -0.0190211 -0.00827443 0.00166959 0.00177616 -0.0123728 0.00142683 -0.031347 -0.010141 -0.00136853 0.000902917 -0.0185431 -0.0293133 0.00155099 -0.00270854 -0.0201489 0.00141608 0.00132483 0.00144466 0.00344594 0.00404894 0.000430699 -0.00873044 0.00081478 0.000581807 0.000739903
internal_weight=0 6242 449 5793 832 160 731 5760 5736 421 5471 67 93 289 254 190 62 5435 310 51 5384 5359 5317 1788 1727 3529 142 3387 3336 3313
internal_count=7074 6242 449 5793 832 160 731 5760 5736 421 5471 67 93 289 254 190 62 5435 310 51 5384 5359 5317 1788 1727 3529 142 3387 3336 3313
is_linear=0
shrinkage=0.05


Tree=3
num_leaves=31
num_cat=0
split_feature=252 6 311 92 418 40 130 24 42 456 441 32 33 40 95 2 71 40 101 134 278 130 16 42 160 53 81 17 228 73
split_gain=14.8147 13.3322 7.32379 7.20203 5.96227 5.82173 8.02726 5.60393 5.29954 5.18037 4.85269 4.91764 4.84908 4.65635 4.94797 4.14425 3.99351 4.37083 6.37001 5.8777 5.8783 5.38818 4.93756 4.27693 4.16002 4.08816 3.96831 3.7468 3.57679 3.58473
threshold=1.0000000180025095e-35 1.0000000180025095e-35 1.0000000180025095e-35 1.0000000180025095e-35 1.0000000180025095e-35 1.0000000180025095e-35 1.0000000180025095e-35 1.0000000180025095e-35 1.0000000180025095e-35 1.0000000180025095e-35 1.0000000180025095e-35 1.0000000180025095e-35 1.0000000180025095e-35 1.0000000180025095e-35 1.0000000180025095e-35 1.0000000180025095e-35 1.0000000180025095e-35 1.0000000180025095e-35 1.0000000180025095e-35 1.0000000180025095e-35 1.0000000180025095e-35 1.0000000180025095e-35 1.0000000180025095e-35 1.0000000180025095e-35 1.0000000180025095e-35 1.0000000180025095e-35 1.0000000180025095e-35 1.0000000180025095e-35 1.0000000180025095e-35 1.0000000180025095e-35
decision_type=2 2 2 2 2 2 2 2 2 2 2 2 2 2 2 2 2 2 2 2 2 2 2 2 2 2 2 2 2 2
left_child=1 2 4 8 9 6 7 27 13 10 11 16 -4 14 -3 -5 17 18 19 20 22 -22 24 -18 26 -26 28 -2 29 -1
right_child=5 3 12 15 -6 -7 -8 -9 -10 -11 -12 -13 -14 -15 -16 -17 23 -19 -20 -21 21 -23 -24 -25 25 -27 -28 -29 -30 -31
leaf_value=0.0029961827608953086 -0.010498434262377142 -0.01078973894778517 -0.0060904141226462254 -0.035715289304581739 -0.025520667359232904 -0.022114796443334361 0.0034336638627252706 -0.032227298208246276 0.0017449763817239728 -0.01452823676324139 -0.021468468478203499 0.0087476605776509002 -0.032748258138599343 0.007295219638688984 0.0083967102200699015 -0.010881769531849951 -0.011894035482568281 0.0060418554220714763 -0.01979766952381137 -0.023596321192124618 -0.027818141924217346 0.0019383615846263952 -0.0097022099085570732 0.005289577443829992 -0.010659163595939226 0.011053646169602872 -0.019745713211596013 0.011053345517509363 -0.014919658175444809 -0.0045905636410792303
leaf_weight=4003 242 366 116 28 20 66 145 28 256 48 22 262 20 49 37 42 106 585 35 23 32 29 89 55 110 27 20 22 29 162
leaf_count=4003 242 366 116 28 20 66 145 28 256 48 22 262 20 49 37 42 106 585 35 23 32 29 89 55 110 27 20 22 29 162
internal_value=0 0.000629898 0.00145526 -0.00551574 0.00173091 -0.00827337 -0.00618291 -0.0109583 -0.00400309 0.0018276 0.00196807 0.00206069 -0.0100107 -0.00725863 -0.0090282 -0.0208152 0.00173043 0.00197313 0.00145104 0.00161543 0.00174427 -0.0136716 0.00195606 -0.00602386 0.00219453 -0.00638 0.00247329 -0.00870245 0.00257925 0.00270109
internal_weight=0 6571 5793 778 5657 503 437 292 708 5637 5589 5567 136 452 403 70 5305 5144 4559 4524 4501 61 4440 161 4351 137 4214 264 4194 4165
internal_count=7074 6571 5793 778 5657 503 437 292 708 5637 5589 5567 136 452 403 70 5305 5144 4559 4524 4501 61 4440 161 4351 137 4214 264 4194 4165
is_linear=0
shrinkage=0.05


Tree=4
num_leaves=31
num_cat=0
split_feature=252 6 3 40 327 42 40 311 4 33 456 10 441 32 63 23 235 7 10 130 202 82 155 283 16 31 7 141 22 42
split_gain=13.3703 12.0323 10.9525 8.82652 6.93215 6.34481 5.43344 5.29063 5.08624 4.89065 4.68202 4.47302 4.38408 4.57389 3.91516 3.66771 3.64831 3.59831 3.48651 3.47623 6.68564 5.73272 5.35033 5.42164 4.45719 4.73417 3.99231 3.81906 6.45044 4.31935
threshold=1.0000000180025095e-35 1.0000000180025095e-35 1.0000000180025095e-35 1.0000000180025095e-35 1.0000000180025095e-35 1.0000000180025095e-35 1.0000000180025095e-35 1.0000000180025095e-35 1.0000000180025095e-35 1.0000000180025095e-35 1.0000000180025095e-35 1.0000000180025095e-35 1.0000000180025095e-35 1.0000000180025095e-35 1.0000000180025095e-35 1.0000000180025095e-35 1.0000000180025095e-35 1.0000000180025095e-35 1.0000000180025095e-35 1.0000000180025095e-35 1.0000000180025095e-35 1.0000000180025095e-35 1.0000000180025095e-35 1.0000000180025095e-35 1.0000000180025095e-35 1.0000000180025095e-35 1.0000000180025095e-35 1.0000000180025095e-35 1.0000000180025095e-35 1.0000000180025095e-35
decision_type=2 2 2 2 2 2 2 2 2 2 2 2 2 2 2 2 2 2 2 2 2 2 2 2 2 2 2 2 2 2
left_child=1 4 11 14 7 6 17 10 -5 -9 12 -2 13 15 -4 16 19 -3 -19 22 21 27 23 24 -1 -26 -24 -21 29 -29
right_child=2 5 3 8 -6 -7 -8 9 -10 -11 -12 -13 -14 -15 -16 -17 -18 18 -20 20 -22 -23 26 -25 25 -27 -28 28 -30 -31
leaf_value=0.0014416458323261317 -0.020346681169154713 -0.013799720597030088 0.004014596001037536 -0.041776853222399955 -0.021468573515162324 0.0010967501483587477 0.0072061340902000674 -0.0043044716356681629 -0.0069377759979529817 -0.031110845571383834 -0.013801824825350195 0.0031986833752497383 -0.020395045261830093 0.0084051193834101864 -0.011117042207492973 0.015127387447282674 0.020204097720292899 -0.00057010199011796531 -0.015488809408112007 0.0050158728160197077 -0.019388020539190622 -0.012506906067917371 -0.019925986964888169 -0.014515358921406525 -0.020312445204546479 0.0082429281302860806 -0.0023599193768059634 0.01338592260144651 -0.018649472153567253 -0.0053658183075158917
leaf_weight=3220 164 275 221 20 33 262 50 114 22 20 48 23 22 263 53 50 26 136 55 1481 32 53 53 56 47 21 83 56 47 68
leaf_count=3220 164 275 221 20 33 262 50 114 22 20 48 23 22 263 53 50 26 136 55 1481 32 53 53 56 47 21 83 56 47 68
internal_value=0 0.000598403 -0.00785971 -0.00218401 0.0013825 -0.00523996 -0.00845743 0.00151341 -0.0235278 -0.00830542 0.00174728 -0.0174507 0.00188108 0.00196929 0.00108767 0.0016495 0.00152097 -0.0101381 -0.00486606 0.00142786 0.00325471 0.00367968 0.000516007 0.00091138 0.00117412 -0.0114939 -0.00920552 0.00419898 -0.00287596 0.00310271
internal_weight=0 6571 503 316 5793 778 516 5760 42 134 5626 187 5578 5556 274 5293 5243 466 191 5217 1737 1705 3480 3344 3288 68 136 1652 171 124
internal_count=7074 6571 503 316 5793 778 516 5760 42 134 5626 187 5578 5556 274 5293 5243 466 191 5217 1737 1705 3480 3344 3288 68 136 1652 171 124
is_linear=0
shrinkage=0.05


Tree=5
num_leaves=31
num_cat=0
split_feature=274 9 130 184 389 100 252 202 31 329 327 252 188 73 26 141 11 262 91 4 178 183 58 295 141 75 383 186 6 283
split_gain=13.1047 7.58581 7.99221 7.51001 6.00319 5.93971 5.83125 5.50329 5.58674 5.3098 5.30111 5.00294 4.50524 4.66226 4.40096 10.2339 3.99463 3.92111 3.83769 3.7364 3.67629 3.57555 4.00539 3.5704 4.98711 3.56651 3.81429 3.61652 3.47982 4.21574
threshold=1.0000000180025095e-35 1.0000000180025095e-35 1.0000000180025095e-35 1.0000000180025095e-35 1.0000000180025095e-35 1.0000000180025095e-35 1.0000000180025095e-35 1.0000000180025095e-35 1.0000000180025095e-35 1.0000000180025095e-35 1.0000000180025095e-35 1.0000000180025095e-35 1.0000000180025095e-35 1.0000000180025095e-35 1.0000000180025095e-35 1.0000000180025095e-35 1.0000000180025095e-35 1.0000000180025095e-35 1.0000000180025095e-35 1.0000000180025095e-35 1.0000000180025095e-35 1.0000000180025095e-35 1.0000000180025095e-35 1.0000000180025095e-35 1.0000000180025095e-35 1.0000000180025095e-35 1.0000000180025095e-35 1.0000000180025095e-35 1.0000000180025095e-35 1.0000000180025095e-35
decision_type=2 2 2 2 2 2 2 2 2 2 2 2 2 2 2 2 2 2 2 2 2 2 2 2 2 2 2 2 2 2
left_child=1 2 3 4 9 7 14 8 20 10 11 12 13 17 15 18 -10 21 -3 -5 23 22 25 -4 -25 26 27 28 29 -1
right_child=-2 6 5 19 -6 -7 -8 -9 16 -11 -12 -13 -14 -15 -16 -17 -18 -19 -20 -21 -22 -23 -24 24 -26 -27 -28 -29 -30 -31
leaf_value=0.0005828368727551689 -0.029307594683927459 -0.0016409902496902396 0.0060983644383273625 -0.0078275373332541108 0.015734119541787852 -0.010218446260612262 -0.020345484738936648 -0.014345532022416591 0.0002554465516856531 -0.024151230311912041 -0.021006533068915211 -0.0062642509574421029 -0.017845980698863666 -0.0089968898362712945 0.0056193159564453012 -0.033609530579058397 -0.017299014609307051 0.014266506270928818 -0.02107462821295485 -0.032033632807433605 -0.010206536382534787 0.0096991626816717077 0.013698604277318768 0.0024455392591493288 -0.022738395676016807 0.011201396916727096 0.011187959876597714 0.017758641711303168 -0.0044548217999137978 -0.013780621962191967
leaf_weight=2904 37 274 1677 44 60 76 58 40 123 23 30 289 33 120 102 31 44 55 28 25 38 110 57 92 25 74 76 28 436 52
leaf_count=2904 37 274 1677 44 60 76 58 40 123 23 30 289 33 120 102 31 44 55 28 25 38 110 57 92 25 74 76 28 436 52
internal_value=0 0.00052729 0.000978742 -0.000231728 2.80516e-05 0.00350614 -0.00545331 0.0040177 0.00438514 -0.000191767 -6.25301e-05 8.58685e-05 0.000551061 0.000706251 -0.00346769 -0.0062511 -0.00436968 0.00101331 -0.00344278 -0.0165979 0.00518321 0.000818256 0.000548915 0.00550919 -0.00293564 0.000338962 0.000109036 -0.000137162 -0.000284887 0.000330164
internal_weight=0 7024 6531 4416 4347 2115 493 2039 1999 4287 4264 4234 3945 3912 435 333 167 3792 302 69 1832 3737 3627 1794 117 3570 3496 3420 3392 2956
internal_count=7061 7024 6531 4416 4347 2115 493 2039 1999 4287 4264 4234 3945 3912 435 333 167 3792 302 69 1832 3737 3627 1794 117 3570 3496 3420 3392 2956
is_linear=0
shrinkage=0.05


Tree=6
num_leaves=31
num_cat=0
split_feature=274 3 155 418 184 252 33 130 63 104 142 165 5 10 21 151 71 73 15 16 7 130 42 2 8 42 18 6 2 2
split_gain=11.827 10.1975 9.96749 8.64059 8.28924 7.65481 5.442 5.24324 4.31661 5.0505 5.1862 4.31433 4.81784 9.41971 6.05993 5.99421 4.79969 4.21484 4.4877 5.19622 4.11673 3.67861 3.99522 3.54822 3.54376 5.11837 3.42293 3.33346 3.77679 3.02416
threshold=1.0000000180025095e-35 1.0000000180025095e-35 1.0000000180025095e-35 1.0000000180025095e-35 1.0000000180025095e-35 1.0000000180025095e-35 1.0000000180025095e-35 1.0000000180025095e-35 1.0000000180025095e-35 1.0000000180025095e-35 1.0000000180025095e-35 1.0000000180025095e-35 1.0000000180025095e-35 1.0000000180025095e-35 1.0000000180025095e-35 1.0000000180025095e-35 1.0000000180025095e-35 1.0000000180025095e-35 1.0000000180025095e-35 1.0000000180025095e-35 1.0000000180025095e-35 1.0000000180025095e-35 1.0000000180025095e-35 1.0000000180025095e-35 1.0000000180025095e-35 1.0000000180025095e-35 1.0000000180025095e-35 1.0000000180025095e-35 1.0000000180025095e-35 1.0000000180025095e-35
decision_type=2 2 2 2 2 2 2 2 2 2 2 2 2 2 2 2 2 2 2 2 2 2 2 2 2 2 2 2 2 2
left_child=1 2 3 5 8 11 -6 -4 9 10 17 12 14 24 15 16 -1 18 26 -20 -11 22 -7 -23 25 27 -3 -14 -29 -27
right_child=-2 4 7 -5 6 21 -8 -9 -10 20 -12 -13 13 -15 -16 -17 -18 -19 19 -21 -22 23 -24 -25 -26 29 -28 28 -30 -31
leaf_value=0.0018288686746228547 -0.02784221467335482 0.0042614366983078278 -0.030001422747018492 -0.033295880719309764 -0.0061132619740912712 -0.0078409185793323379 -0.034604876470707716 5.0042392242522472e-05 -0.0033860141949451253 -0.020189708804359614 -0.019963164860382677 0.0065051196172694649 0.0016389011932187716 -0.026091415978347261 -0.017785433661192656 -0.013215363143037444 -0.016888232010283642 -0.0070939882589068186 0.00079349499496399732 -0.01991557264700532 -0.00029058309573627694 -0.010432827636471083 -0.025303571427796497 0.016942510921508076 0.0020490713099835913 -0.010260982968740994 0.021237156912684442 -0.023794848749512862 -0.0038649053937372039 -0.031680437472935481
leaf_weight=1601 37 2920 47 21 83 77 21 21 296 41 24 208 160 48 45 73 35 94 567 32 71 29 57 20 214 45 30 33 85 26
leaf_count=1601 37 2920 47 21 83 77 21 21 296 41 24 208 160 48 45 73 35 94 567 32 71 29 57 20 214 45 30 33 85 26
internal_value=0 0.000500925 -0.00180805 -0.00134494 0.00207284 -0.00110148 -0.0118664 -0.0207208 0.00242859 0.00288403 0.00320348 -0.000398724 -0.00100591 -0.00482953 0.000326035 0.000802931 0.00142844 0.0033561 0.00363289 -0.000312832 -0.00757508 -0.0109823 -0.0152691 0.00074078 -0.0030168 -0.00612309 0.00443407 -0.00306303 -0.00943853 -0.0181047
internal_weight=0 7024 2845 2777 4179 2756 104 68 4075 3779 3667 2573 2365 611 1754 1709 1636 3643 3549 599 112 183 134 49 563 349 2950 278 118 71
internal_count=7061 7024 2845 2777 4179 2756 104 68 4075 3779 3667 2573 2365 611 1754 1709 1636 3643 3549 599 112 183 134 49 563 349 2950 278 118 71
is_linear=0
shrinkage=0.05


Tree=7
num_leaves=31
num_cat=0
split_feature=274 54 3 155 184 252 9 22 130 7 165 327 114 36 228 338 104 63 142 329 319 2 141 53 295 16 31 31 189 74
split_gain=10.6739 9.63866 8.18867 9.2845 7.61748 6.89889 6.65912 5.29924 5.00999 4.85846 3.73653 4.15514 3.66123 3.54644 4.0727 3.54453 3.92494 4.71691 4.64865 4.06725 3.43356 3.36968 3.12415 3.74058 4.65841 3.2868 6.83894 3.37167 4.09759 3.61889
threshold=1.0000000180025095e-35 1.0000000180025095e-35 1.0000000180025095e-35 1.0000000180025095e-35 1.0000000180025095e-35 1.0000000180025095e-35 1.0000000180025095e-35 1.0000000180025095e-35 1.0000000180025095e-35 1.0000000180025095e-35 1.0000000180025095e-35 1.0000000180025095e-35 1.0000000180025095e-35 1.0000000180025095e-35 1.0000000180025095e-35 1.0000000180025095e-35 1.0000000180025095e-35 1.0000000180025095e-35 1.0000000180025095e-35 1.0000000180025095e-35 1.0000000180025095e-35 1.0000000180025095e-35 1.0000000180025095e-35 1.0000000180025095e-35 1.0000000180025095e-35 1.0000000180025095e-35 1.0000000180025095e-35 1.0000000180025095e-35 1.0000000180025095e-35 1.0000000180025095e-35
decision_type=2 2 2 2 2 2 2 2 2 2 2 2 2 2 2 2 2 2 2 2 2 2 2 2 2 2 2 2 2 2
left_child=1 2 3 5 15 10 8 -6 12 -5 11 13 -7 14 -1 16 17 18 19 20 22 -18 25 24 -24 27 -27 28 29 -4
right_child=-2 -3 4 9 7 6 -8 -9 -10 -11 -12 -13 -14 -15 -16 -17 21 -19 -20 -21 -22 -23 23 -25 -26 26 -28 -29 -30 -31
leaf_value=-0.00063301714594156356 -0.026450103893876076 -0.018541746930868335 0.0051531369714584553 -0.034726453858117262 -0.0054545012699371139 -0.0074123882214605285 -0.032273149072867012 -0.033126576608893551 0.0090849107317626486 -0.0078097774598159296 0.0061734989724262536 -0.020012127814282264 -0.030886906608939169 0.016740452702927951 -0.020925457715988163 0.014171312257854474 -0.011164315726162624 -0.0038611408914970102 -0.018965007054309049 -0.019370968186995016 -0.0095139616097395241 0.010232819503416188 0.0024935368536869542 -0.01689358761205393 -0.020052972733974456 -0.013571585201277908 0.01397671579863086 -0.00087490452832337151 -0.013949287425855113 -0.010804481830240952
leaf_weight=2256 37 66 2714 30 81 98 29 22 40 38 205 28 20 29 25 63 92 272 24 20 52 23 274 34 25 71 33 295 29 36
leaf_count=2256 37 66 2714 30 81 98 29 22 40 38 205 28 20 29 25 63 92 272 24 20 52 23 274 34 25 71 33 295 29 36
internal_value=0 0.000475879 0.00065627 -0.00143523 0.002063 -0.000980659 -0.0102496 -0.011365 -0.00620731 -0.0196848 -0.000299065 -0.000866591 -0.0113911 -0.000634524 -0.000855424 0.00240392 0.0022183 0.00248818 0.00296698 0.00311389 0.0032401 -0.00688489 0.00342899 -0.00117861 0.000608377 0.00391179 -0.0048303 0.00420756 0.00474708 0.00494424
internal_weight=0 7024 6958 2798 4160 2730 187 103 158 68 2543 2338 118 2310 2281 4057 3994 3879 3607 3583 3563 115 3511 333 299 3178 104 3074 2779 2750
internal_count=7061 7024 6958 2798 4160 2730 187 103 158 68 2543 2338 118 2310 2281 4057 3994 3879 3607 3583 3563 115 3511 333 299 3178 104 3074 2779 2750
is_linear=0
shrinkage=0.05


Tree=8
num_leaves=31
num_cat=0
split_feature=274 54 3 155 184 252 9 33 130 130 73 104 15 295 15 8 7 165 53 21 5 10 151 15 8 114 42 31 283 39
split_gain=9.63319 8.69889 7.39027 8.37926 6.87477 6.22625 6.00985 4.86628 4.6322 4.52151 3.4312 4.58097 5.14519 4.60189 4.02299 4.04346 3.94425 3.37222 3.92722 3.64754 4.4618 7.86371 6.93899 5.1536 3.3296 3.30426 3.96204 3.11688 4.16497 4.3005
threshold=1.0000000180025095e-35 1.0000000180025095e-35 1.0000000180025095e-35 1.0000000180025095e-35 1.0000000180025095e-35 1.0000000180025095e-35 1.0000000180025095e-35 1.0000000180025095e-35 1.0000000180025095e-35 1.0000000180025095e-35 1.0000000180025095e-35 1.0000000180025095e-35 1.0000000180025095e-35 1.0000000180025095e-35 1.0000000180025095e-35 1.0000000180025095e-35 1.0000000180025095e-35 1.0000000180025095e-35 1.0000000180025095e-35 1.0000000180025095e-35 1.0000000180025095e-35 1.0000000180025095e-35 1.0000000180025095e-35 1.0000000180025095e-35 1.0000000180025095e-35 1.0000000180025095e-35 1.0000000180025095e-35 1.0000000180025095e-35 1.0000000180025095e-35 1.0000000180025095e-35
decision_type=2 2 2 2 2 2 2 2 2 2 2 2 2 2 2 2 2 2 2 2 2 2 2 2 2 2 2 2 2 2
left_child=1 2 3 5 10 17 9 -6 -5 25 11 12 27 -14 15 -12 -13 18 19 20 22 23 -1 -22 -24 26 -7 28 -4 -30
right_child=-2 -3 4 8 7 6 -8 -9 -10 -11 14 16 13 -15 -16 -17 -18 -19 -20 -21 21 -23 24 -25 -26 -27 -28 -29 29 -31
leaf_value=0.0025794288617069262 -0.025127598618132036 -0.017614659215464738 0.0045003905834366661 -0.027423627904437961 -0.0052969177395514244 0.00045165344111857905 -0.030659490965049843 -0.032272478122086751 0.0008225533224287488 0.0086306651122868058 -0.0049099970270573799 -0.020942359095489659 -7.1089556769357801e-05 -0.018414196149549551 0.012728703177223603 -0.029019630435769536 -0.00049228773953822948 0.0058648235844902521 -0.004540172921121975 -0.01462281712330878 -0.0002212104182690382 -0.030128088859575138 -0.0033581746546061417 -0.024953985756830031 -0.025067511584722636 -0.029342562649399041 -0.020529928995030269 -0.0014797769239137195 -0.01609221295814733 0.0097415246942546222
leaf_weight=1381 37 66 2771 47 82 63 29 21 21 40 83 37 681 36 24 22 65 205 545 40 250 28 38 23 33 20 35 265 49 24
leaf_count=1381 37 66 2771 47 82 63 29 21 21 40 83 37 681 36 24 22 65 205 545 40 250 28 38 23 33 20 35 265 49 24
internal_value=0 0.000452085 0.000623457 -0.00136347 0.00195985 -0.000931626 -0.00973713 -0.0107968 -0.0187005 -0.00589695 0.00228372 0.00254723 0.00282603 -0.000992082 -0.0057401 -0.00996154 -0.00791045 -0.000284112 -0.000823261 0.000306531 0.000647189 -0.00489313 0.0017957 -0.00230492 -0.0134484 -0.0108216 -0.00704177 0.00370657 0.00418982 -0.00759893
internal_weight=0 7024 6958 2798 4160 2730 187 103 68 158 4057 3928 3826 717 129 105 102 2543 2338 1793 1753 301 1452 273 71 118 98 3109 2844 73
internal_count=7061 7024 6958 2798 4160 2730 187 103 68 158 4057 3928 3826 717 129 105 102 2543 2338 1793 1753 301 1452 273 71 118 98 3109 2844 73
is_linear=0
shrinkage=0.05


Tree=9
num_leaves=31
num_cat=0
split_feature=274 54 3 155 184 252 22 7 7 4 6 53 40 141 33 4 295 104 77 2 42 283 327 20 119 92 2 82 178 4
split_gain=8.69396 7.85075 6.66972 7.56228 6.20448 5.61919 4.76798 4.29095 3.30364 5.67441 5.81053 6.20772 4.88994 4.51999 4.33282 4.3285 8.13932 5.10626 4.29796 3.90473 3.46222 3.32237 3.29178 3.33638 4.90923 3.78519 3.43676 2.92887 2.66495 2.60871
threshold=1.0000000180025095e-35 1.0000000180025095e-35 1.0000000180025095e-35 1.0000000180025095e-35 1.0000000180025095e-35 1.0000000180025095e-35 1.0000000180025095e-35 1.0000000180025095e-35 1.0000000180025095e-35 1.0000000180025095e-35 1.0000000180025095e-35 1.0000000180025095e-35 1.0000000180025095e-35 1.0000000180025095e-35 1.0000000180025095e-35 1.0000000180025095e-35 1.0000000180025095e-35 1.0000000180025095e-35 1.0000000180025095e-35 1.0000000180025095e-35 1.0000000180025095e-35 1.0000000180025095e-35 1.0000000180025095e-35 1.0000000180025095e-35 1.0000000180025095e-35 1.0000000180025095e-35 1.0000000180025095e-35 1.0000000180025095e-35 1.0000000180025095e-35 1.0000000180025095e-35
decision_type=2 2 2 2 2 2 2 2 2 2 2 2 2 2 2 2 2 2 2 2 2 2 2 2 2 2 2 2 2 2
left_child=1 2 3 5 8 22 -6 -5 15 13 12 20 -11 14 28 18 17 19 21 -17 -12 -4 23 24 25 -1 -27 -7 -10 -3
right_child=-2 29 4 7 6 27 -8 -9 9 10 11 -13 -14 -15 -16 16 -18 -19 -20 -21 -22 -23 -24 -25 -26 26 -28 -29 -30 -31
leaf_value=0.0013081116490143365 -0.023871219485394054 -0.0055056647991697343 0.0045572952840154113 -0.031901412233710291 -0.0046505051736869382 -0.01147591155695628 -0.030898860867389223 -0.0066055970266461379 0.0038504043987525136 0.0050223319482677409 -0.024381822161376479 0.0090037301611155269 0.013450811743991925 -0.0083380667314369005 -0.0041461723983021717 0.00076546087835732246 -0.028429475056473166 -0.02588591860008559 -0.0090581572912116024 -0.012667778923298371 -0.0034321666717892739 -0.010445386494318837 -0.017019181820596085 -0.0049604848537257353 -0.023457098007202151 -0.023369066092917432 -0.0030158652068348604 0.0083428706086817236 -0.013046142489959799 -0.025534455602787234
leaf_weight=2078 37 29 686 30 81 166 22 38 844 1100 38 50 204 124 245 478 30 21 72 61 41 39 29 307 21 28 80 21 24 37
leaf_count=2078 37 29 686 30 81 166 22 38 844 1100 38 50 204 124 245 478 30 21 72 61 41 39 29 307 21 28 80 21 24 37
internal_value=0 0.000429481 0.000592284 -0.00129529 0.00186186 -0.000885045 -0.010257 -0.0177655 0.00216954 0.0031979 0.00533949 -0.00478327 0.0063409 0.000716978 0.00172581 0.000189917 -0.0030565 -0.00169723 0.00259316 -0.000754813 -0.0135092 0.00375025 -0.000269906 -7.66965e-05 0.000602652 0.000833785 -0.00829262 -0.00925027 0.00338322 -0.0167339
internal_weight=0 7024 6958 2798 4160 2730 103 68 4057 2670 1433 129 1304 1237 1113 1387 590 560 797 539 79 725 2543 2514 2207 2186 108 187 868 66
internal_count=7061 7024 6958 2798 4160 2730 103 68 4057 2670 1433 129 1304 1237 1113 1387 590 560 797 539 79 725 2543 2514 2207 2186 108 187 868 66
is_linear=0
shrinkage=0.05


Tree=10
num_leaves=31
num_cat=0
split_feature=7 54 6 88 165 252 430 119 15 4 21 124 9 22 31 155 130 103 24 33 63 104 53 183 41 5 456 42 121 243
split_gain=9.63204 7.15656 6.81555 6.66108 5.82619 4.52619 4.5183 4.31881 4.16554 6.6931 8.81689 5.05511 4.98078 4.41434 4.06127 3.88409 6.43258 4.54297 4.42811 6.67399 5.41164 3.87596 3.75284 6.36658 6.33615 7.38802 5.39243 4.84148 3.94039 3.63343
threshold=1.0000000180025095e-35 1.0000000180025095e-35 1.0000000180025095e-35 1.0000000180025095e-35 1.0000000180025095e-35 1.0000000180025095e-35 1.0000000180025095e-35 1.0000000180025095e-35 1.0000000180025095e-35 1.0000000180025095e-35 1.0000000180025095e-35 1.0000000180025095e-35 1.0000000180025095e-35 1.0000000180025095e-35 1.0000000180025095e-35 1.0000000180025095e-35 1.0000000180025095e-35 1.0000000180025095e-35 1.0000000180025095e-35 1.0000000180025095e-35 1.0000000180025095e-35 1.0000000180025095e-35 1.0000000180025095e-35 1.0000000180025095e-35 1.0000000180025095e-35 1.0000000180025095e-35 1.0000000180025095e-35 1.0000000180025095e-35 1.0000000180025095e-35 1.0000000180025095e-35
decision_type=2 2 2 2 2 2 2 2 2 2 2 2 2 2 2 2 2 2 2 2 2 2 2 2 2 2 2 2 2 2
left_child=1 4 8 5 6 -4 7 15 9 10 29 12 -11 -12 -10 17 -17 18 22 20 21 -20 24 28 25 26 -1 -27 -24 -2
right_child=2 -3 3 -5 -6 -7 -8 -9 14 11 13 -13 -14 -15 -16 16 -18 -19 19 -21 -22 -23 23 -25 -26 27 -28 -29 -30 -31
leaf_value=0.0025309768153457387 0.0012797751662120308 -0.018968261585881316 -0.0012566299690429043 -0.02972038051423927 0.0063020600939423521 -0.023652438679710033 0.021521699680015445 -0.021196834308405719 -0.0022114407657661014 0.006779568208488765 -0.0080279328095327531 -0.019314187355339529 -0.0044107571862220208 -0.036104171912718031 0.011861985608069453 -0.020764540379811357 0.0056833613344601224 -0.015576203092772129 -0.0055919986023172663 0.0089086266375094092 -0.030943170234817886 -0.027318315483305766 -0.0072570179081142081 0.015684774393836656 -0.019498429060555423 -0.01271284593065502 -0.02088861042261124 0.00371310016271309 0.013989810520054206 0.016048916537574558
leaf_weight=1460 1320 60 376 24 220 24 20 30 606 1407 42 20 107 21 56 67 35 58 191 53 29 23 426 36 39 150 25 64 23 43
leaf_count=1460 1320 60 376 24 220 24 20 30 606 1407 42 20 107 21 56 67 35 58 191 53 29 23 426 36 39 150 25 64 23 43
internal_value=0 -0.00187312 0.00186242 -0.00413547 -0.0015253 -0.00260038 -0.00215631 -0.00233112 0.00256455 0.00336644 0.000900453 0.00565881 0.00598871 -0.0173867 -0.00102094 -0.00211986 -0.0116893 -0.00174109 -0.00142254 -0.00716753 -0.0106738 -0.00792707 -0.000657575 -0.00454654 0.000427666 0.000885063 0.00213671 -0.00780041 -0.00616865 0.00174571
internal_weight=0 3009 4046 424 2949 400 2729 2709 3622 2960 1426 1534 1514 63 662 2679 102 2577 2519 296 243 214 2223 485 1738 1699 1485 214 449 1363
internal_count=7055 3009 4046 424 2949 400 2729 2709 3622 2960 1426 1534 1514 63 662 2679 102 2577 2519 296 243 214 2223 485 1738 1699 1485 214 449 1363
is_linear=0
shrinkage=0.05


Tree=11
num_leaves=31
num_cat=0
split_feature=7 54 6 40 88 165 75 73 15 430 235 119 53 63 361 21 31 91 31 15 103 311 456 228 155 130 41 38 55 24
split_gain=8.69291 6.45879 6.15104 6.68774 6.01163 5.25814 4.27202 4.17924 4.50422 4.07776 4.10909 4.23254 4.03101 3.95176 3.86938 3.70439 3.88965 5.40477 3.678 3.63384 3.56845 3.29046 3.32982 3.38032 3.38571 5.00521 3.17365 3.11864 3.09792 2.91249
threshold=1.0000000180025095e-35 1.0000000180025095e-35 1.0000000180025095e-35 1.0000000180025095e-35 1.0000000180025095e-35 1.0000000180025095e-35 1.0000000180025095e-35 1.0000000180025095e-35 1.0000000180025095e-35 1.0000000180025095e-35 1.0000000180025095e-35 1.0000000180025095e-35 1.0000000180025095e-35 1.0000000180025095e-35 1.0000000180025095e-35 1.0000000180025095e-35 1.0000000180025095e-35 1.0000000180025095e-35 1.0000000180025095e-35 1.0000000180025095e-35 1.0000000180025095e-35 1.0000000180025095e-35 1.0000000180025095e-35 1.0000000180025095e-35 1.0000000180025095e-35 1.0000000180025095e-35 1.0000000180025095e-35 1.0000000180025095e-35 1.0000000180025095e-35 1.0000000180025095e-35
decision_type=2 2 2 2 2 2 2 2 2 2 2 2 2 2 2 2 2 2 2 2 2 2 2 2 2 2 2 2 2 2
left_child=1 5 3 7 12 9 27 8 15 10 11 13 -4 14 20 16 -2 -18 -10 -15 21 22 23 24 26 -26 28 -5 29 -1
right_child=2 -3 4 6 -6 -7 -8 -9 18 -11 -12 -13 -14 19 -16 -17 17 -19 -20 -21 -22 -23 -24 -25 25 -27 -28 -29 -30 -31
leaf_value=0.0012208144170257002 0.0038400725973361687 -0.018019848548186321 -0.0063999088173131314 0.0098778247371006933 -0.028234362245226904 0.0059869572553064004 -0.013686828552321954 -0.0078138769130434906 -0.0033027739668007195 0.020445614724885673 0.020365177196217703 -0.021380897405846366 0.0039410101586805756 -0.01604388514582656 -0.0230468955245756 -0.006330994650100669 -0.00057552933372211773 -0.027102137780324984 0.011920937816720717 -0.001208989507174247 -0.013858671360771711 -0.010923673892778296 -0.019781412795671954 -0.018588889304261943 -0.020446053515881937 0.0094183888752013452 -0.013736088343319439 -0.0073282766887652027 -0.0089417346008121967 -0.0045523921016513581
leaf_weight=1834 2181 60 248 443 24 220 22 114 513 20 20 29 152 95 21 105 151 22 43 73 57 84 23 26 47 20 42 28 90 248
leaf_count=1834 2181 60 248 443 24 220 22 114 513 20 20 29 152 95 21 105 151 22 43 73 57 84 23 26 47 20 42 28 90 248
internal_value=0 -0.00177946 0.0017693 0.00243632 -0.0039287 -0.00144904 0.00784904 0.00158351 0.00193883 -0.0020485 -0.00221457 -0.00238251 -0.00247036 -0.00217538 -0.001675 0.00285778 0.00326765 -0.00394886 -0.0021254 -0.00959777 -0.00149336 -0.00120139 -0.000850889 -0.000662158 -0.00045782 -0.0115313 -0.000122715 0.00885496 0.000140527 0.000533132
internal_weight=0 3009 4046 3622 424 2949 493 3129 3015 2729 2709 2689 400 2660 2492 2459 2354 173 556 168 2471 2414 2330 2307 2281 67 2214 471 2172 2082
internal_count=7055 3009 4046 3622 424 2949 493 3129 3015 2729 2709 2689 400 2660 2492 2459 2354 173 556 168 2471 2414 2330 2307 2281 67 2214 471 2172 2082
is_linear=0
shrinkage=0.05


Tree=12
num_leaves=31
num_cat=0
split_feature=7 54 9 76 31 178 40 165 151 3 33 21 4 94 252 3 2 155 4 311 104 160 15 8 4 103 63 26 22 38
split_gain=7.84536 5.82906 5.58085 6.2322 6.46516 5.53295 4.99835 4.74547 4.04403 4.99824 4.06578 4.87859 8.78079 4.78222 3.88747 4.6014 5.57592 3.88509 4.33607 5.86213 4.58151 4.21128 3.8524 5.64625 3.7874 3.66777 3.5622 3.43043 4.14872 3.39824
threshold=1.0000000180025095e-35 1.0000000180025095e-35 1.0000000180025095e-35 1.0000000180025095e-35 1.0000000180025095e-35 1.0000000180025095e-35 1.0000000180025095e-35 1.0000000180025095e-35 1.0000000180025095e-35 1.0000000180025095e-35 1.0000000180025095e-35 1.0000000180025095e-35 1.0000000180025095e-35 1.0000000180025095e-35 1.0000000180025095e-35 1.0000000180025095e-35 1.0000000180025095e-35 1.0000000180025095e-35 1.0000000180025095e-35 1.0000000180025095e-35 1.0000000180025095e-35 1.0000000180025095e-35 1.0000000180025095e-35 1.0000000180025095e-35 1.0000000180025095e-35 1.0000000180025095e-35 1.0000000180025095e-35 1.0000000180025095e-35 1.0000000180025095e-35 1.0000000180025095e-35
decision_type=2 2 2 2 2 2 2 2 2 2 2 2 2 2 2 2 2 2 2 2 2 2 2 2 2 2 2 2 2 2
left_child=1 7 5 4 -4 6 8 14 10 -10 11 -2 -13 -12 17 16 -16 18 19 21 26 25 23 -7 -19 -1 27 28 -20 -8
right_child=2 -3 3 -5 -6 22 29 -9 9 -11 13 12 -14 -15 15 -17 -18 24 20 -21 -22 -23 -24 -25 -26 -27 -28 -29 -30 -31
leaf_value=0.0017463114468775449 0.0034777571079329496 -0.017118856182011467 -0.00075102579556887792 -0.030741234194664731 -0.028229048467524678 0.003010272997288177 0.0083683490388388841 0.0056876091820198451 -0.020624228914014317 0.0011984936606425506 -0.00091646731231183874 -0.023543711675657952 0.0060126897620244165 -0.025868062674999238 -0.02963436661495103 -0.0015121973304647125 -0.0030250900265361581 -0.017835426222143777 -0.0060860872802207706 -0.020351545011737582 -0.022148041421491089 -0.013790162078332792 -0.028736388020624871 -0.026294733380729504 0.0040616552611546855 -0.016850976852907075 -0.016855916976928714 0.0022524245130598436 0.0087615792857412521 -0.009003379779557388
leaf_weight=1467 2387 60 309 21 23 65 457 220 44 65 482 47 54 20 45 90 35 67 494 33 33 47 20 22 28 27 45 266 52 30
leaf_count=1467 2387 60 309 21 23 65 457 220 44 65 482 47 54 20 45 90 35 67 494 33 33 47 20 22 28 27 45 266 52 30
internal_value=0 -0.00169049 0.00168084 -0.0043255 -0.00265462 0.00225496 0.00258927 -0.00137659 0.00184927 -0.00761068 0.00219413 0.00302232 -0.00774128 -0.00191055 -0.00194607 -0.00926778 -0.0179928 -0.00145967 -0.00107713 0.000500079 -0.0038665 0.000946609 -0.00894901 -0.00440019 -0.0113815 0.00141022 -0.00316254 -0.00240367 -0.00467202 0.00729822
internal_weight=0 3009 4046 353 332 3693 3586 2949 3099 109 2990 2488 101 502 2729 170 80 2559 2464 1574 890 1541 107 87 95 1494 857 812 546 487
internal_count=7055 3009 4046 353 332 3693 3586 2949 3099 109 2990 2488 101 502 2729 170 80 2559 2464 1574 890 1541 107 87 95 1494 857 812 546 487
is_linear=0
shrinkage=0.05


Tree=13
num_leaves=31
num_cat=0
split_feature=6 63 161 178 7 4 24 252 40 77 103 42 95 55 295 75 158 104 114 42 94 88 20 24 158 114 8 295 4 171
split_gain=7.45154 7.09237 6.92229 6.7831 5.88914 5.03174 4.97598 5.05302 4.84683 4.78148 4.96103 4.59435 6.98316 4.51916 4.82012 3.99475 3.3114 3.47295 3.66891 3.28131 6.83732 3.58023 3.7408 4.64891 4.46544 3.2677 2.90341 2.90234 3.46298 2.84913
threshold=1.0000000180025095e-35 1.0000000180025095e-35 1.0000000180025095e-35 1.0000000180025095e-35 1.0000000180025095e-35 1.0000000180025095e-35 1.0000000180025095e-35 1.0000000180025095e-35 1.0000000180025095e-35 1.0000000180025095e-35 1.0000000180025095e-35 1.0000000180025095e-35 1.0000000180025095e-35 1.0000000180025095e-35 1.0000000180025095e-35 1.0000000180025095e-35 1.0000000180025095e-35 1.0000000180025095e-35 1.0000000180025095e-35 1.0000000180025095e-35 1.0000000180025095e-35 1.0000000180025095e-35 1.0000000180025095e-35 1.0000000180025095e-35 1.0000000180025095e-35 1.0000000180025095e-35 1.0000000180025095e-35 1.0000000180025095e-35 1.0000000180025095e-35 1.0000000180025095e-35
decision_type=2 2 2 2 2 2 2 2 2 2 2 2 2 2 2 2 2 2 2 2 2 2 2 2 2 2 2 2 2 2
left_child=1 4 3 11 5 9 -3 -8 19 10 29 12 -2 14 16 -10 17 18 26 27 21 22 23 24 25 -21 -7 -6 -29 -1
right_child=2 6 -4 -5 8 13 7 -9 15 -11 -12 -13 -14 -15 -16 -17 -18 -19 -20 20 -22 -23 -24 -25 -26 -27 -28 28 -30 -31
leaf_value=0.0018272196160644925 -0.0088556905413701478 -0.0026278645104692118 0.023446257641030987 -0.028723348192228326 0.003607559333005831 -0.0010323274265496231 -0.0099194780094822993 -0.038509702887386088 0.0081595760813797831 -0.010799620815633256 -0.017801257438259201 0.0011294255479820578 0.011010181698568013 -0.022157039807643743 -0.019310303290136333 -0.014135905506000633 -0.016933189632578029 -0.016563686271223965 -0.014469097200781107 0.00010030718578412382 -0.021970977644835202 0.011505104481762249 -0.007842601581017572 0.011257744182054837 -0.010893983001496351 0.013564224189030938 0.008529755436693846 -0.0192577428244535 0.0031310495036916855 0.019957706501538105
leaf_weight=1439 455 255 22 29 1676 579 68 20 464 81 32 273 49 32 43 21 36 36 45 737 35 69 141 97 89 48 92 31 39 22
leaf_count=1439 455 255 22 29 1676 579 68 20 464 81 32 273 49 32 43 21 36 36 45 737 35 69 141 97 89 48 92 31 39 22
internal_value=0 0.000823341 -0.00422544 -0.00498075 0.00123076 -0.00065052 -0.00616567 -0.0164173 0.0025608 0.00103178 0.00167368 -0.0040946 -0.00692429 -0.00371882 -0.00300881 0.0071942 -0.00211926 -0.00141008 -0.00064817 0.00180213 -0.000192017 0.000453422 -0.000232339 0.000872756 -0.000279812 0.000923579 0.000278718 0.00319095 -0.00678399 0.00210023
internal_weight=0 6227 828 806 5884 2437 343 88 3447 1574 1493 777 504 863 831 485 788 752 716 2962 1216 1181 1112 971 874 785 671 1746 70 1461
internal_count=7055 6227 828 806 5884 2437 343 88 3447 1574 1493 777 504 863 831 485 788 752 716 2962 1216 1181 1112 971 874 785 671 1746 70 1461
is_linear=0
shrinkage=0.05


Tree=14
num_leaves=31
num_cat=0
split_feature=6 63 161 178 7 4 24 252 77 103 42 295 130 3 4 124 15 9 21 22 243 150 104 42 141 9 130 382 15 66
split_gain=6.72501 6.40087 6.24736 6.12175 5.31495 4.54115 4.49083 4.56035 4.31529 4.47733 4.1464 3.97143 3.3782 5.29395 3.23183 4.91989 4.73825 4.45484 4.42807 4.49024 3.12535 3.07649 2.9874 2.81397 5.34201 3.98073 4.90739 4.23523 2.76305 2.72884
threshold=1.0000000180025095e-35 1.0000000180025095e-35 1.0000000180025095e-35 1.0000000180025095e-35 1.0000000180025095e-35 1.0000000180025095e-35 1.0000000180025095e-35 1.0000000180025095e-35 1.0000000180025095e-35 1.0000000180025095e-35 1.0000000180025095e-35 1.0000000180025095e-35 1.0000000180025095e-35 1.0000000180025095e-35 1.0000000180025095e-35 1.0000000180025095e-35 1.0000000180025095e-35 1.0000000180025095e-35 1.0000000180025095e-35 1.0000000180025095e-35 1.0000000180025095e-35 1.0000000180025095e-35 1.0000000180025095e-35 1.0000000180025095e-35 1.0000000180025095e-35 1.0000000180025095e-35 1.0000000180025095e-35 1.0000000180025095e-35 1.0000000180025095e-35 1.0000000180025095e-35
decision_type=2 2 2 2 2 2 2 2 2 2 2 2 2 2 2 2 2 2 2 2 2 2 2 2 2 2 2 2 2 2
left_child=1 4 3 10 5 8 -3 28 9 -1 -2 -7 13 -10 18 16 17 -16 20 -20 21 23 -18 24 29 27 -27 -25 -8 -6
right_child=2 6 -4 -5 14 11 7 -9 12 -11 -12 -13 -14 -15 15 -17 22 -19 19 -21 -22 -23 -24 25 -26 26 -28 -29 -30 -31
leaf_value=0.001995220133175941 -0.0065780718430860797 -0.002496471295439109 0.022273944555358454 -0.027287180316714767 0.0042307818264545509 -0.0027561611865255659 -0.020434590164692172 -0.036584216561168434 -0.00089736149574701609 -0.016911194071872162 0.0010729543425504378 -0.018344787632245139 0.0045916729606688021 -0.031968376917186479 0.006162509570712728 -0.020218216379483542 -0.0020155705068793752 -0.0045257333399994033 -0.0027547700185742647 -0.030317650252783841 0.01461689280735892 0.015589221119880675 0.017398888262964429 0.00023387873536732403 -0.011322962876695854 0.0022250973596237601 -0.02714343553578312 -0.021693971040456193 -0.00019799932661290106 -0.010254368054516176
leaf_weight=1461 504 255 22 29 744 820 31 20 26 32 273 43 26 29 1363 21 351 105 45 22 43 35 21 517 65 25 33 23 37 34
leaf_count=1461 504 255 22 29 744 820 31 20 26 32 273 43 26 29 1363 21 351 105 45 22 43 35 21 517 65 25 33 23 37 34
internal_value=0 0.000782174 -0.00401417 -0.00473171 0.00116922 -0.000617994 -0.00585738 -0.0155964 0.000980195 0.00158999 -0.00388987 -0.00353288 -0.0102596 -0.0172803 0.00243276 0.00384612 0.00412077 0.00539802 0.000774341 -0.0118053 0.0013292 0.000942094 -0.000919593 0.000586335 0.00244728 -0.00203704 -0.0144846 -0.000700085 -0.0094235 0.00359775
internal_weight=0 6227 828 806 5884 2437 343 88 1574 1493 777 863 81 55 3447 1861 1840 1468 1586 67 1519 1476 372 1441 843 598 58 540 68 778
internal_count=7055 6227 828 806 5884 2437 343 88 1574 1493 777 863 81 55 3447 1861 1840 1468 1586 67 1519 1476 372 1441 843 598 58 540 68 778
is_linear=0
shrinkage=0.05


Tree=15
num_leaves=31
num_cat=0
split_feature=137 3 190 58 40 252 151 130 189 100 430 215 8 52 155 6 42 191 165 95 252 92 103 129 130 2 10 4 73 45
split_gain=5.9839 6.21951 10.6813 6.16939 5.42117 7.73587 5.01812 4.87342 3.99181 3.98037 3.7544 4.01816 4.19114 4.48926 5.61489 5.06213 4.05292 3.99477 3.9751 3.84493 4.99812 3.76337 3.60633 3.60241 4.37913 7.04229 4.64954 3.56928 3.48475 3.39029
threshold=1.0000000180025095e-35 1.0000000180025095e-35 1.0000000180025095e-35 1.0000000180025095e-35 1.0000000180025095e-35 1.0000000180025095e-35 1.0000000180025095e-35 1.0000000180025095e-35 1.0000000180025095e-35 1.0000000180025095e-35 1.0000000180025095e-35 1.0000000180025095e-35 1.0000000180025095e-35 1.0000000180025095e-35 1.0000000180025095e-35 1.0000000180025095e-35 1.0000000180025095e-35 1.0000000180025095e-35 1.0000000180025095e-35 1.0000000180025095e-35 1.0000000180025095e-35 1.0000000180025095e-35 1.0000000180025095e-35 1.0000000180025095e-35 1.0000000180025095e-35 1.0000000180025095e-35 1.0000000180025095e-35 1.0000000180025095e-35 1.0000000180025095e-35 1.0000000180025095e-35
decision_type=2 2 2 2 2 2 2 2 2 2 2 2 2 2 2 2 2 2 2 2 2 2 2 2 2 2 2 2 2 2
left_child=1 2 3 6 8 -6 10 -8 9 -3 11 12 13 14 15 17 -16 29 22 20 21 -17 23 24 26 27 28 -26 -14 -1
right_child=-2 4 -4 -5 5 -7 7 -9 -10 -11 -12 -13 18 -15 16 19 -18 -19 -20 -21 -22 -23 -24 -25 25 -27 -28 -29 -30 -31
leaf_value=-0.0022552232769720813 0.01059930795764861 0.00031715872736048125 -0.033203753080618174 0.01396930013494245 0.0063335132214548014 -0.015635794505130415 -0.01921078229731903 0.0040614709445846182 -0.014367856906384839 -0.0091430679457667093 0.01804758991803164 0.019034607302058828 0.0053516984838547169 0.010917866982233066 -0.031593668136385179 -0.0073380333177819118 -0.0055891040327220136 -0.016105841993874707 0.018011300852804474 0.0054656912245460466 -0.035778658706694846 -0.026897987989442693 0.016250284309640078 -0.016784774283455175 -0.03550997118651867 0.0051185533735487202 -0.015955461526755244 -0.009291332704877411 -0.010560358533831804 0.013071320633831863
leaf_weight=1454 120 3355 28 58 588 43 82 31 49 115 23 22 364 52 31 202 29 51 33 37 20 28 33 33 25 45 32 27 38 37
leaf_count=1454 120 3355 28 58 588 43 82 31 49 115 23 22 364 52 31 202 29 51 33 37 20 28 33 33 25 45 32 27 38 37
internal_value=0 -0.000661799 -0.00247595 -0.00216723 0.000568761 0.0048364 -0.00251019 -0.0128264 -0.000196479 3.63536e-06 -0.00206457 -0.00224297 -0.00242504 -0.00357516 -0.00397412 -0.00348038 -0.0190248 -0.00234556 0.00111842 -0.00957759 -0.011804 -0.00971925 0.000184642 -0.000755369 0.000240809 -0.00936372 0.00238744 -0.0218964 0.00384757 -0.00187489
internal_weight=0 6965 2815 2787 4150 631 2729 113 3519 3470 2616 2593 2571 1941 1889 1829 60 1542 630 287 250 230 597 564 531 97 434 52 402 1491
internal_count=7085 6965 2815 2787 4150 631 2729 113 3519 3470 2616 2593 2571 1941 1889 1829 60 1542 630 287 250 230 597 564 531 97 434 52 402 1491
is_linear=0
shrinkage=0.05


Tree=16
num_leaves=31
num_cat=0
split_feature=137 32 40 252 189 101 160 73 6 151 121 2 108 20 5 9 417 183 81 430 26 41 295 141 8 7 106 2 4 338
split_gain=5.40047 4.75033 4.32199 8.434 4.65172 4.38335 4.38906 4.63295 5.39482 7.71502 5.44572 7.96619 4.40315 4.12969 4.17973 3.62572 3.30554 3.46412 4.44528 3.51018 3.23019 3.21472 3.93292 4.14144 3.76585 5.74494 3.53596 3.13242 2.93483 2.91275
threshold=1.0000000180025095e-35 1.0000000180025095e-35 1.0000000180025095e-35 1.0000000180025095e-35 1.0000000180025095e-35 1.0000000180025095e-35 1.0000000180025095e-35 1.0000000180025095e-35 1.0000000180025095e-35 1.0000000180025095e-35 1.0000000180025095e-35 1.0000000180025095e-35 1.0000000180025095e-35 1.0000000180025095e-35 1.0000000180025095e-35 1.0000000180025095e-35 1.0000000180025095e-35 1.0000000180025095e-35 1.0000000180025095e-35 1.0000000180025095e-35 1.0000000180025095e-35 1.0000000180025095e-35 1.0000000180025095e-35 1.0000000180025095e-35 1.0000000180025095e-35 1.0000000180025095e-35 1.0000000180025095e-35 1.0000000180025095e-35 1.0000000180025095e-35 1.0000000180025095e-35
decision_type=2 2 2 2 2 2 2 2 2 2 2 2 2 2 2 2 2 2 2 2 2 2 2 2 2 2 2 2 2 2
left_child=1 2 4 -4 5 6 7 8 9 16 11 13 -9 14 -10 -13 17 18 19 21 -11 22 26 -24 25 -23 29 -12 -16 -1
right_child=-2 -3 3 -5 -6 -7 -8 12 10 20 27 15 -14 -15 28 -17 -18 -19 -20 -21 -22 24 23 -25 -26 -27 -28 -29 -30 -31
leaf_value=0.00082620422468647481 0.010069342405719606 0.005526048381191989 0.0039186475240244115 -0.01540301240766879 -0.016418092748077186 -0.016624365016595338 -0.0087257718243484352 -0.011744243043940514 -0.010409361856035526 -0.007660597962406434 0.016426400887931503 0.0010948712599837028 0.0080162127776181001 0.0025424958158953067 -0.013762214303844507 -0.020070736431940038 -0.0121518564159767 0.0087006961919426449 -0.02322694193571806 0.020321145183168649 -0.027757576593886252 -0.032319822069257501 -0.0035230759897681534 -0.025164064751179133 0.0041717048670927232 -0.00432110533539979 -0.013782393973229862 -0.0031417677799860638 -0.03301213243235411 0.013091899696452431
leaf_weight=3963 120 300 762 61 51 46 184 165 164 153 43 252 34 39 36 22 52 126 20 22 23 28 122 27 44 53 41 39 44 49
leaf_count=3963 120 300 762 61 51 46 184 165 164 153 43 252 34 39 36 22 52 126 20 22 23 28 122 27 44 53 41 39 44 49
internal_value=0 -0.000628709 -0.000905742 0.00248654 -0.00138364 -0.00125123 -0.00112814 -0.000876751 -0.000598725 -1.53651e-05 -0.00491048 -0.00668151 -0.00836808 -0.0125652 -0.01498 -0.000604557 0.000382214 0.000527213 0.000291493 0.000399649 -0.0102869 0.000298361 0.000533419 -0.0074446 -0.00760335 -0.0139997 0.000826714 0.00711959 -0.0243497 0.00097601
internal_weight=0 6965 6665 823 5842 5791 5745 5561 5362 4723 639 557 199 283 244 274 4547 4495 4369 4349 176 4327 4202 149 125 81 4053 82 80 4012
internal_count=7085 6965 6665 823 5842 5791 5745 5561 5362 4723 639 557 199 283 244 274 4547 4495 4369 4349 176 4327 4202 149 125 81 4053 82 80 4012
is_linear=0
shrinkage=0.05


Tree=17
num_leaves=31
num_cat=0
split_feature=137 3 190 58 40 252 2 45 129 114 42 22 155 66 92 127 100 82 114 73 41 77 8 6 133 27 161 26 7 417
split_gain=4.87393 5.5545 9.62287 5.49505 4.49929 6.3928 4.17858 5.23088 4.87341 4.58941 7.42961 5.03745 4.21977 4.20154 3.65022 3.47117 3.78167 3.45829 3.4259 3.14963 3.84723 3.10722 2.94445 2.7259 2.65742 2.62684 3.35722 3.2656 3.0671 2.76615
threshold=1.0000000180025095e-35 1.0000000180025095e-35 1.0000000180025095e-35 1.0000000180025095e-35 1.0000000180025095e-35 1.0000000180025095e-35 1.0000000180025095e-35 1.0000000180025095e-35 1.0000000180025095e-35 1.0000000180025095e-35 1.0000000180025095e-35 1.0000000180025095e-35 1.0000000180025095e-35 1.0000000180025095e-35 1.0000000180025095e-35 1.0000000180025095e-35 1.0000000180025095e-35 1.0000000180025095e-35 1.0000000180025095e-35 1.0000000180025095e-35 1.0000000180025095e-35 1.0000000180025095e-35 1.0000000180025095e-35 1.0000000180025095e-35 1.0000000180025095e-35 1.0000000180025095e-35 1.0000000180025095e-35 1.0000000180025095e-35 1.0000000180025095e-35 1.0000000180025095e-35
decision_type=2 2 2 2 2 2 2 2 2 2 2 2 2 2 2 2 2 2 2 2 2 2 2 2 2 2 2 2 2 2
left_child=1 2 3 6 15 -6 7 12 9 11 -11 13 14 22 17 16 18 24 19 20 25 -18 -8 -13 -1 26 29 28 -27 -3
right_child=-2 4 -4 -5 5 -7 8 -9 -10 10 -12 23 -14 -15 -16 -17 21 -19 -20 -21 -22 -23 -24 -25 -26 27 -28 -29 -30 -31
leaf_value=-0.0036052883823546114 0.0095658754747516162 0.00059427361097601087 -0.031477409404968577 0.013210451262521334 0.0058144809618850832 -0.014156861828510151 -0.0010390907465896036 0.015998854371719062 -0.021448831396320693 -0.029749164838464032 0.0077572192713294338 0.014230280544719484 -0.019868544558453008 -0.018196459679353624 -0.02124936265560488 -0.016271568527868527 -0.0049984881920473916 -0.020155693079915743 0.007101750403470334 -0.0084781412385560775 -0.0098230926886848785 -0.026192193691219601 0.0056990623720193298 -0.0039240043538694199 0.010748387274868562 -0.0085970830115856545 -0.019206234033812178 0.025168896195563402 0.0099802455097875182 -0.012184226228097499
leaf_weight=1411 120 2803 28 58 588 43 700 32 26 31 23 101 43 31 30 33 98 31 177 107 92 21 211 26 33 33 22 22 68 43
leaf_count=1411 120 2803 28 58 588 43 700 32 26 31 23 101 43 31 30 33 98 31 177 107 92 21 211 26 33 33 22 22 68 43
internal_value=0 -0.000597274 -0.00231169 -0.00201867 0.000565639 0.00445352 -0.00234234 -0.0040108 -4.80375e-05 0.000447439 -0.0137742 0.00116584 -0.00442443 -9.44285e-05 -0.00398317 -0.000131505 2.12837e-05 -0.00363199 0.000330883 -4.48047e-05 0.000247887 -0.00873855 0.000521557 0.0105137 -0.00327726 0.000557659 0.000250798 0.00771275 0.00391043 0.000401204
internal_weight=0 6965 2815 2787 4150 631 2729 1580 1149 1123 54 1069 1548 942 1505 3519 3486 1475 3367 3190 3083 119 911 127 1444 2991 2868 123 101 2846
internal_count=7085 6965 2815 2787 4150 631 2729 1580 1149 1123 54 1069 1548 942 1505 3519 3486 1475 3367 3190 3083 119 911 127 1444 2991 2868 123 101 2846
is_linear=0
shrinkage=0.05


Tree=18
num_leaves=31
num_cat=0
split_feature=137 3 190 58 151 130 40 80 8 95 52 183 54 155 6 114 42 2 165 42 103 189 100 40 2 129 130 2 10 4
split_gain=4.39872 5.01294 8.68464 4.95928 4.15017 4.31013 4.06061 3.81868 3.20805 4.1147 4.68148 4.58432 5.5237 4.42662 4.26762 4.19895 4.27724 7.20416 3.77594 3.6485 3.17368 3.13456 3.25586 3.06506 4.62167 3.03774 4.06811 6.12581 4.22626 3.22917
threshold=1.0000000180025095e-35 1.0000000180025095e-35 1.0000000180025095e-35 1.0000000180025095e-35 1.0000000180025095e-35 1.0000000180025095e-35 1.0000000180025095e-35 1.0000000180025095e-35 1.0000000180025095e-35 1.0000000180025095e-35 1.0000000180025095e-35 1.0000000180025095e-35 1.0000000180025095e-35 1.0000000180025095e-35 1.0000000180025095e-35 1.0000000180025095e-35 1.0000000180025095e-35 1.0000000180025095e-35 1.0000000180025095e-35 1.0000000180025095e-35 1.0000000180025095e-35 1.0000000180025095e-35 1.0000000180025095e-35 1.0000000180025095e-35 1.0000000180025095e-35 1.0000000180025095e-35 1.0000000180025095e-35 1.0000000180025095e-35 1.0000000180025095e-35 1.0000000180025095e-35
decision_type=2 2 2 2 2 2 2 2 2 2 2 2 2 2 2 2 2 2 2 2 2 2 2 2 2 2 2 2 2 2
left_child=1 2 3 4 8 -6 21 -8 9 10 11 12 13 14 15 -1 17 -17 20 -15 25 22 -3 24 -16 26 28 29 -10 -28
right_child=-2 6 -4 -5 5 -7 7 -9 18 -11 -12 -13 -14 19 23 16 -18 -19 -20 -21 -22 -23 -24 -25 -26 -27 27 -29 -30 -31
leaf_value=-0.0018309515018946486 0.0090875815569112697 0.00033595735115149971 -0.029903539010722725 0.012549928774864511 -0.017611033677282492 0.004274987421869751 0.0053719022726488224 -0.0090282793436199434 0.003837520138047622 0.003654816131145783 0.012308283373713494 0.0081455915889425863 -0.024826282460355398 -0.029412744134183856 -0.020672058314085008 -0.0072226518984226627 0.0034984830468893051 -0.044469883186476572 0.017488025586285136 -0.0047396812716434741 0.015431703192492327 -0.012682779372802802 -0.0082200768849124087 0.0066366939246654518 -0.0055362993752351031 -0.015240965563465249 -0.033506843097507955 0.0046377371850475253 -0.01503915487555787 -0.0085686422470543123
leaf_weight=1240 120 3355 28 58 82 31 581 50 404 219 45 74 33 31 87 34 25 21 34 29 33 49 115 25 120 33 25 45 32 27
leaf_count=1240 120 3355 28 58 82 31 581 50 404 219 45 74 33 31 87 34 25 21 34 29 33 49 115 25 120 33 25 45 32 27
internal_value=0 -0.00056741 -0.00219611 -0.00191774 -0.00222523 -0.0116069 0.000537357 0.00423084 -0.00181998 -0.00280924 -0.00361175 -0.00402851 -0.00457616 -0.00416161 -0.00364643 -0.00254724 -0.0136497 -0.0214443 0.00127909 -0.0174874 0.000359054 -0.00012493 5.24e-05 -0.00990046 -0.0118977 -0.00051974 0.000391705 -0.00886934 0.00245208 -0.0205582
internal_weight=0 6965 2815 2787 2729 113 4150 631 2616 1983 1764 1719 1645 1612 1552 1320 80 55 633 60 599 3519 3470 232 207 566 533 97 436 52
internal_count=7085 6965 2815 2787 2729 113 4150 631 2616 1983 1764 1719 1645 1612 1552 1320 80 55 633 60 599 3519 3470 232 207 566 533 97 436 52
is_linear=0
shrinkage=0.05


Tree=19
num_leaves=31
num_cat=0
split_feature=137 3 190 58 149 40 252 151 5 75 73 41 127 100 24 338 211 33 430 215 8 252 7 2 42 165 112 52 45 54
split_gain=3.96984 4.52418 7.83789 4.47575 3.86374 4.09705 6.00891 3.74552 4.14956 3.42862 4.36307 3.30007 3.54303 3.58666 3.22913 3.21731 3.07058 6.31201 3.04153 3.49705 3.32661 3.6613 5.33692 6.23882 4.37883 3.21856 2.99885 2.98686 3.15801 3.15011
threshold=1.0000000180025095e-35 1.0000000180025095e-35 1.0000000180025095e-35 1.0000000180025095e-35 1.0000000180025095e-35 1.0000000180025095e-35 1.0000000180025095e-35 1.0000000180025095e-35 1.0000000180025095e-35 1.0000000180025095e-35 1.0000000180025095e-35 1.0000000180025095e-35 1.0000000180025095e-35 1.0000000180025095e-35 1.0000000180025095e-35 1.0000000180025095e-35 1.0000000180025095e-35 1.0000000180025095e-35 1.0000000180025095e-35 1.0000000180025095e-35 1.0000000180025095e-35 1.0000000180025095e-35 1.0000000180025095e-35 1.0000000180025095e-35 1.0000000180025095e-35 1.0000000180025095e-35 1.0000000180025095e-35 1.0000000180025095e-35 1.0000000180025095e-35 1.0000000180025095e-35
decision_type=2 2 2 2 2 2 2 2 2 2 2 2 2 2 2 2 2 2 2 2 2 2 2 2 2 2 2 2 2 2
left_child=1 2 3 7 5 9 -7 18 -9 10 11 12 13 15 -12 16 26 -18 19 20 21 27 23 -23 -24 -22 -3 28 29 -1
right_child=-2 4 -4 -5 -6 6 -8 8 -10 -11 14 -13 -14 -15 -16 -17 17 -19 -20 -21 25 22 24 -25 -26 -27 -28 -29 -30 -31
leaf_value=-0.0027904201893645558 0.0086332025192677984 0.0010886928137786606 -0.028408362503562656 0.011922432361812943 -0.017368290784458323 0.0057018316750511132 -0.013667381208303365 -0.01691778889153062 0.0045566940195708268 0.009661893199166556 -0.0060417787279813361 -0.0088072041113513942 -0.017068371282697753 -0.0087355368770658977 -0.028275690935552125 0.014218192547559738 -0.0013912754308651476 -0.030916450091678167 0.01637334521535946 0.01796040040525523 0.00025727810264819333 -0.036092081016806124 0.012822319314845147 -0.0058022467172978561 -0.010835226365136652 0.016298104672354052 -0.013237251693735253 0.0095975347422063359 0.011270067864694658 -0.017166494628271231
leaf_weight=1661 120 2875 28 58 30 582 43 82 31 89 89 102 29 102 20 44 85 23 23 22 597 34 31 34 53 33 37 50 39 39
leaf_count=1661 120 2875 28 58 30 582 43 82 31 89 89 102 29 102 20 44 85 23 23 22 597 34 31 34 53 33 37 50 39 39
internal_value=0 -0.000539039 -0.0020863 -0.00182185 0.000510489 0.000640675 0.00436923 -0.00211396 -0.0110266 -2.60912e-05 -0.000279242 4.61434e-05 0.000328786 0.00048814 -0.0101214 0.000795195 0.000599628 -0.00767904 -0.00172898 -0.00188955 -0.0020594 -0.00308406 -0.0105341 -0.0209472 -0.00210447 0.00109751 0.000906667 -0.00245107 -0.0027975 -0.00312022
internal_weight=0 6965 2815 2787 4150 4120 625 2729 113 3495 3406 3297 3195 3166 109 3064 3020 108 2616 2593 2571 1941 152 68 84 630 2912 1789 1739 1700
internal_count=7085 6965 2815 2787 4150 4120 625 2729 113 3495 3406 3297 3195 3166 109 3064 3020 108 2616 2593 2571 1941 152 68 84 630 2912 1789 1739 1700
is_linear=0
shrinkage=0.05


end of trees

feature_importances:
onion=22
clove=21
rice=21
butter=20
salt=20
leaf=20
pepper=19
oil=18
milk=16
steak=12
cheese=11
water=11
cornstarch=11
beef=9
seed=9
garlic=9
noodles=9
lemonjuice=9
vinegar=8
soda=8
cabbage=8
eggplant=8
parsley=7
whippingcream=7
zucchini=7
chicken=7
basil=7
sausage=7
egg=6
onions=6
shallot=6
flour=6
bakingpowder=6
cinnamon=6
currypowder=6
jam=6
apricots=6
choy=6
chilipowder=5
sugar=5
olive=5
tomatosauce=5
redpepperflakes=5
chives=5
potato=5
thighs=5
pumpkin=5
potatoes=4
chili=4
celery=4
broth=4
peas=4
meat=4
breadcrumb=4
almonds=4
tofu=4
limejuice=4
spaghetti=4
dates=4
fishsauce=4
capsicum=4
soysauce=3
orange=3
freshlemonjuice=3
bacon=3
floret=3
thyme=3
corn=3
vegetables=3
pasta=3
chickenbreast=3
cream=3
oystersauce=3
almond=3
cumin=2
tarragon=2
sourcream=2
peanuts=2
coriander=2
paprika=2
bread=2
mayonnaise=2
beer=2
turkey=2
mushrooms=2
almondextract=2
teriyakisauce=2
mushroom=2
allspice=2
juiceandzestof=2
couscous=2
tomato=1
lettuce=1
mustard=1
orangejuice=1
ginger=1
pork=1
nutmeg=1
margarine=1
carrot=1
worcestershiresauce=1
raisin=1
yeast=1
nuts=1
capers=1
salmon=1
sprouts=1
bonelessskinlesschickenbreast=1
dough=1
gingerroot=1
leek=1
lime=1
corianderpowder=1
lamb=1
mint=1
pastry=1

parameters:
[boosting: gbdt]
[objective: regression]
[metric: l2,l1]
[tree_learner: serial]
[device_type: cpu]
[linear_tree: 0]
[data: ]
[valid: ]
[num_iterations: 20]
[learning_rate: 0.05]
[num_leaves: 31]
[num_threads: 0]
[deterministic: 0]
[force_col_wise: 0]
[force_row_wise: 0]
[histogram_pool_size: -1]
[max_depth: -1]
[min_data_in_leaf: 20]
[min_sum_hessian_in_leaf: 0.001]
[bagging_fraction: 0.8]
[pos_bagging_fraction: 1]
[neg_bagging_fraction: 1]
[bagging_freq: 5]
[bagging_seed: 3]
[feature_fraction: 0.9]
[feature_fraction_bynode: 1]
[feature_fraction_seed: 2]
[extra_trees: 0]
[extra_seed: 6]
[early_stopping_round: 5]
[first_metric_only: 0]
[max_delta_step: 0]
[lambda_l1: 0]
[lambda_l2: 0]
[linear_lambda: 0]
[min_gain_to_split: 0]
[drop_rate: 0.1]
[max_drop: 50]
[skip_drop: 0.5]
[xgboost_dart_mode: 0]
[uniform_drop: 0]
[drop_seed: 4]
[top_rate: 0.2]
[other_rate: 0.1]
[min_data_per_group: 100]
[max_cat_threshold: 32]
[cat_l2: 10]
[cat_smooth: 10]
[max_cat_to_onehot: 4]
[top_k: 20]
[monotone_constraints: ]
[monotone_constraints_method: basic]
[monotone_penalty: 0]
[feature_contri: ]
[forcedsplits_filename: ]
[refit_decay_rate: 0.9]
[cegb_tradeoff: 1]
[cegb_penalty_split: 0]
[cegb_penalty_feature_lazy: ]
[cegb_penalty_feature_coupled: ]
[path_smooth: 0]
[interaction_constraints: ]
[verbosity: 0]
[saved_feature_importance_type: 0]
[max_bin: 255]
[max_bin_by_feature: ]
[min_data_in_bin: 3]
[bin_construct_sample_cnt: 200000]
[data_random_seed: 1]
[is_enable_sparse: 1]
[enable_bundle: 1]
[use_missing: 1]
[zero_as_missing: 0]
[feature_pre_filter: 1]
[pre_partition: 0]
[two_round: 0]
[header: 0]
[label_column: ]
[weight_column: ]
[group_column: ]
[ignore_column: ]
[categorical_feature: ]
[forcedbins_filename: ]
[objective_seed: 5]
[num_class: 1]
[is_unbalance: 0]
[scale_pos_weight: 1]
[sigmoid: 1]
[boost_from_average: 1]
[reg_sqrt: 0]
[alpha: 0.9]
[fair_c: 1]
[poisson_max_delta_step: 0.7]
[tweedie_variance_power: 1.5]
[lambdarank_truncation_level: 30]
[lambdarank_norm: 1]
[label_gain: ]
[eval_at: ]
[multi_error_top_k: 1]
[auc_mu_weights: ]
[num_machines: 1]
[local_listen_port: 12400]
[time_out: 120]
[machine_list_filename: ]
[machines: ]
[gpu_platform_id: -1]
[gpu_device_id: -1]
[gpu_use_dp: 0]
[num_gpu: 1]

end of parameters

pandas_categorical:[]
